Size10mm,BBRKC_Standard,BBRKC_NS ,BBRKC_NS_BIAS_CORRECTED,BBRKC_OS,BBRKC_OS_BIAS_CORRECTED,BBRKC_NS_pct_dif,BBRKC_NS_BC_pct_dif,BBRKC_OS_pct_dif,BBRKC_OS_BC_pct_dif,EBSCB_Standard,EBSCB_MATFEM_Standard,EBSCB_NS,EBSCB_NS_BIAS_CORRECTED,EBSCB_NS_MATFEM_BIAS_CORRECTED,EBSCB_OS,EBSCB_OS_BIAS_CORRECTED,EBSCB_OS_MATFEM_BIAS_CORRECTED,EBSCB_NS_pct_dif,EBSCB_NS_BC_pct_dif,EBSCB_NS_MATFEM_BC_pct_dif,EBSCB_OS_pct_dif,EBSCB_OS_BC_pct_dif,EBSCB_OS_MATFEM_BC_pct_dif,EBSCO_Standard,EBSCO_MATFEM_Standard,EBSCO_NS,EBSCO_NS_BIAS_CORRECTED,EBSCO_MATFEM_NS_BIAS_CORRECTED,EBSCO_OS,EBSCO_OS_BIAS_CORRECTED,EBSCO_MATFEM_OS_BIAS_CORRECTED,EBSCO_NS_pct_dif,EBSCO_NS_BC_pct_dif,EBSCO_OS_pct_dif,EBSCO_OS_BC_pct_dif,EBSCO_MATFEM_NS_BC_pct_dif,EBSCO_MATFEM_OS_BC_pct_dif,SMBKC_Standard_Male,SMBKC_Standard_Female,SMBKC_NS_BIAS_CORRECTED,SMBKC_OS_BIAS_CORRECTED,SMBKC_MATURE_FEMALE_BIAS_CORRECTED,SMBKC_NS_BC_pct_dif,SMBKC_OS_BC_pct_dif,SMBKC_Matfem_pct_dif,BBRKC - Male - Standard,BBRKC - Male - NS - Warm,BBRKC - Male - NS - Cold,BBRKC_Warm_pct_dif,BBRKC_Cold_pct_dif,EBSCB_Male_Standard,EBSCB_Male_NS_Warm,EBSCB_Male_NS_Cold,EBSCB_Warm_pct_dif,EBSCB_Cold_pct_dif,EBSCO_Standard,EBSCO_NS_Warm,EBSCO_NS_Cold,EBSCO_Warm_pct_dif,EBSCO_Cold_pct_dif,BBRKC_Female_Standard,BBRKC_Female_w_clutch_NS_Cold,BBRKC_Female_w_clutch_NS_Warm,BBRKC_Female_w_clutch_NS_Cold_pct_dif,BBRKC_Female_w_clutch_NS_Warm_pct_dif,EBSCB_Female_Standard,EBSCB_Female_w_clutch_NS,EBSCB_Female_w_clutch_OS,EBSCB_Female_w_clutch_NS_pct_dif,EBSCB_Female_w_clutch_OS,EBSCB_Female_w_clutch_NS_Cold,EBSCB_Female_w_clutch_NS_Warm,EBSCB_Female_w_clutch_NS_Cold_pct_dif,EBSCB_Female_w_clutch_NS_Warm_pct_dif,EBSCO_Female_Standard,EBSCO_Female_w_clutch_NS,EBSCO_Female_w_clutch_OS,EBSCO_Female_w_clutch_NS_Cold,EBSCO_Female_w_clutch_NS _Warm ,EBSCO_Female_w_clutch_NS_pct_dif,EBSCO_Female_w_clutch_OS_pct_dif,EBSCO_Female_w_clutch_NS_Cold_pct_dif,EBSCO_Female_w_clutch_NS_Warm_pct_dif,EBSCO_AllMatfem_NS,EBSCO_AllMatfem_OS,EBSCO_AllMatfem_NS_pct_dif,EBSCO_AllMatfem_OS_pct_dif,EBSCO_Female_NS_CS4,EBSCO_Female_NS_CS5,EBSCO_Female_NS_CS6,EBSCO_Female_OS_CS4,EBSCO_Female_OS_CS5,EBSCO _Female_OS_CS6,EBSCO_Female_NS_CS4_pct_dif,EBSCO_Female_NS_CS5_pct_dif,EBSCO_Female_NS_CS6_pct_dif,EBSCO_Female_OS_CS4_pct_dif,EBSCO_Female_OS_CS5_pct_dif,EBSCO_Female_OS_CS6_pct_dif,EBSCB_Female_NS_CS4,EBSCB_Female_NS_CS5,EBSCB_Female_NS_CS6,EBSCB_Female_OS_CS4,EBSCB_Female_OS_CS5,EBSCB_Female_OS_CS6,EBSCB_AllMatfem_NS,EBSCB_AllMatfem_OS,EBSCB_Female_NS_CS4_pct_dif,EBSCB_Female_NS_CS5_pct_dif,EBSCB_Female_NS_CS6_pct_dif,EBSCB_Female_OS_CS4_pct_dif,EBSCB_Female_OS_CS5_pct_dif,EBSCB_Female_OS_CS6_pct_dif,EBSCB_AllMatfem_NS_pct_dif,EBSCB_AllMatfem_OS_pct_dif,SMBKC_Standard,SMBKC_NS,SMBKC_OS,SMBKC_NS_pct_dif,SMBKC_OS_pct_dif,NBS_CO_Male_All,NS_RKC_Male_NS,NS_RKC_Male_OS,NBS_BKC_Male_NS,NBS_BKC_Male_OS,NBS_CO_Male_All_pct_dif,NS_RKC_Male_NS_pct_dif,NS_RKC_Male_OS_pct_dif,NBS_BKC_Male_NS_pct_dif,NBS_BKC_Male_OS_pct_dif
10,0.000558006,0.000548074,0.00054822,0.000621197,0.000620028,-1.779915636,-1.753805271,10.17248184,11.11491762,0.000284117,0.00034924,0.000282523,0.000279006,0.000349668,0.000256997,0.000259531,0.000421492,-0.561097094,-1.798856744,0.122482814,-10.55282542,-8.653465778,20.68811073,0.000334014,0.000592245,0.000312017,0.000313112,0.000496734,0.000386212,0.000386942,0.000457456,-6.585652098,-6.257910643,13.5154815,15.84612099,-16.12694071,-22.75899332,0.000642483,0.00384521,0.000519559,0.000685318,0.000377851,-19.13261834,6.667068726,-90.17346533,0.000558006,0.000636596,0.000529254,14.08403897,-5.152590075,0.000284117,0.00028036,0.000285639,-1.322387136,0.53566757,0.000334014,0.000321523,0.000309143,-3.739648487,-7.446078619,0.001665456,0.001771504,0.002198241,6.36749308,31.9903014,0.00034924,0.000348903,0.000421492,-0.096603582,20.68811073,0.000365486,0.000324104,4.651740978,-7.197557502,0.000592245,0.000496734,0.000457456,0.000487475,0.000508624,-16.12694853,-22.75907122,-17.69040951,-14.11927402,0.000497648,0.000458159,-15.9726668,-22.64029615,0.000488396,0.000504788,0.000434329,0.000423582,0.000461749,0.000469064,-17.53478095,-14.7671186,-26.6639978,-28.47863102,-22.03411025,-20.79897574,0.000235457,0.000333745,0.000418333,0.000421655,0.000420222,0.000421164,0.000337825,0.000424007,-32.58016858,-4.436770382,19.7836621,20.73483076,20.32458843,20.59419672,-3.268534981,21.4083708,0.000642483,0.000519559,0.000685318,-19.13261834,6.667068726,0.000369414,0.00060922,0.000854051,0.000507701,0.000452763,10.59850936,9.17797634,53.05394534,-20.97829511,-29.52925553
20,0.00492351,0.004857888,0.00485919,0.005367662,0.005357556,-1.33283465,-1.306376157,8.274588335,8.81578631,0.002308079,0.00260445,0.002282627,0.002254205,0.002580765,0.002191303,0.002212916,0.002984829,-1.102751754,-2.334144412,-0.90940954,-5.329087008,-4.123021111,14.60496602,0.002858448,0.003871948,0.002711711,0.002721229,0.003457173,0.003202533,0.003208587,0.003334718,-5.13345004,-4.800474431,10.7441394,12.24927843,-10.71230812,-13.87492807,0.005536171,0.018546337,0.004697585,0.005851467,0.003830893,-15.14739802,5.695198689,-79.34420418,0.00492351,0.005455559,0.00472259,10.8063042,-4.080816547,0.002308079,0.002281252,0.002295883,-1.16234271,-0.528411233,0.002858448,0.002767265,0.002699754,-3.189958863,-5.551746679,0.010570659,0.011019331,0.012808364,4.244503511,21.16902346,0.00260445,0.002575118,0.002984829,-1.126237966,14.60496602,0.002652385,0.00245834,1.840493285,-5.610016161,0.003871948,0.003457173,0.003334718,0.003419629,0.003506384,-10.71230635,-13.87491439,-11.6819365,-9.441354048,0.003460948,0.003337944,-10.61481726,-13.79161064,0.003404267,0.003493462,0.003202972,0.003189152,0.003349007,0.003394934,-12.07869688,-9.775070858,-17.27750945,-17.63443256,-13.50587879,-12.3197393,0.001963895,0.002494811,0.002949241,0.00298837,0.002974515,0.002988858,0.002519277,0.002995917,-24.59464301,-4.209697381,13.23854718,14.74091588,14.2089323,14.75965078,-3.270278243,15.0306959,0.005536171,0.004697585,0.005851467,-15.14739802,5.695198689,0.003020104,0.005214887,0.0067574,0.004653323,0.004387764,5.655358735,5.918078974,37.24762975,-15.94690328,-20.74370895
30,0.017596904,0.017408553,0.01741325,0.018951124,0.018915445,-1.070366247,-1.0436726,7.145856941,7.49303044,0.007859992,0.008436247,0.00774852,0.007652027,0.008309021,0.00767663,0.007752359,0.009380238,-1.41823064,-2.645865044,-1.508090734,-2.388578824,-1.369372383,11.18970129,0.01003528,0.011612461,0.009606422,0.00964014,0.010754961,0.011037729,0.011058596,0.010658896,-4.273503081,-3.937507023,9.082020739,10.19718667,-7.384308976,-8.211566868,0.019514294,0.046557034,0.017030952,0.020515533,0.014851162,-12.72576035,5.130801258,-68.10114204,0.017596904,0.019168797,0.016990116,8.932783157,-3.44826364,0.007859992,0.007776,0.007769946,-1.068602417,-1.145628868,0.01003528,0.009747573,0.009591148,-2.866957054,-4.425710488,0.031158371,0.03210008,0.0359116,3.022331668,15.25506219,0.008436247,0.008290839,0.009380238,-1.723609135,11.18970129,0.008455748,0.008042375,0.23115828,-4.668804147,0.011612461,0.010754961,0.010658896,0.010687426,0.010847467,-7.384314497,-8.211564294,-7.965880388,-6.587698755,0.010762003,0.010665651,-7.323671009,-8.15339959,0.01059971,0.010832052,0.010307305,0.010388048,0.010672892,0.010805989,-8.721245993,-6.720446307,-11.2392698,-10.54395916,-8.091042208,-6.944889075,0.006791867,0.008092334,0.009244184,0.009395753,0.00934539,0.009404594,0.008160272,0.009402742,-19.4918435,-4.076618147,9.57696687,11.3736098,10.77662965,11.47841078,-3.271297971,11.45645321,0.019514294,0.017030952,0.020515533,-12.72576035,5.130801258,0.010322978,0.018310717,0.022659441,0.017005439,0.016566632,2.866862296,4.056471803,28.76947281,-12.8565003,-15.1051414
40,0.043442076,0.04305817,0.043069837,0.046381056,0.046293735,-0.883718628,-0.856861691,6.336595765,6.564278667,0.018750106,0.019422604,0.018442332,0.018212648,0.019047618,0.018684305,0.018868646,0.021137316,-1.641455962,-2.866426673,-1.930666902,-0.352175786,0.632207323,8.828435187,0.024462249,0.025313806,0.023567265,0.023649985,0.024061252,0.026555915,0.02660612,0.024309123,-3.65863335,-3.320481597,7.883991378,8.763996864,-4.948106184,-3.968913248,0.047704268,0.089453273,0.042473122,0.049961721,0.038840044,-10.9657823,4.732183601,-56.58063446,0.043442076,0.046753553,0.042140146,7.622741627,-2.996932003,0.018750106,0.018562223,0.018453624,-1.002038708,-1.581227727,0.024462249,0.023817147,0.023577047,-2.637130265,-3.618642816,0.067092027,0.068543822,0.07462977,2.163886705,11.23493234,0.019422604,0.019005939,0.021137316,-2.145260629,8.828435187,0.019248726,0.018646609,-0.895236184,-3.995317264,0.025313806,0.024061252,0.024309123,0.023988665,0.024172501,-4.948107914,-3.968912733,-5.234854236,-4.508627951,0.024069548,0.024318776,-4.915334219,-3.930780159,0.02372875,0.024177054,0.023620409,0.024011153,0.024289915,0.024571423,-6.261626033,-4.490641346,-6.689617146,-5.146017247,-4.044794101,-2.9327185,0.016380388,0.01864918,0.020792104,0.021179295,0.021054902,0.021210919,0.018787092,0.021168317,-15.6632738,-3.982084818,7.051064747,9.04457059,8.404112477,9.20738978,-3.272021473,8.988045156,0.047704268,0.042473122,0.049961721,-10.9657823,4.732183601,0.024690516,0.04463913,0.05346576,0.042649926,0.042522214,0.93314,2.755517456,23.07367727,-10.59515766,-10.86287341
50,0.087566358,0.086919504,0.086943135,0.092863309,0.092688477,-0.738701018,-0.71171556,5.704030082,5.849414128,0.036802624,0.037086782,0.03613493,0.035684868,0.036249662,0.037249411,0.03761695,0.039694533,-1.814254825,-3.037162731,-2.257193477,1.199447533,2.212684429,7.0314825,0.048826006,0.04633046,0.047273835,0.047439764,0.044933877,0.052469413,0.052568608,0.046078669,-3.178984167,-2.839147099,6.943866854,7.665182135,-3.01439485,-0.543467516,0.095427151,0.148450603,0.086288825,0.099648879,0.081871513,-9.576232293,4.424032862,-44.84932277,0.087566358,0.093361021,0.085249878,6.617453846,-2.645399605,0.036802624,0.03645286,0.036096829,-0.950377044,-1.917782176,0.048826006,0.047625625,0.047367114,-2.458488339,-2.98794213,0.121629906,0.123457948,0.131619975,1.502954146,8.213497389,0.037086782,0.036170341,0.039694533,-2.471072704,7.0314825,0.036433977,0.035800003,-1.760211003,-3.469645372,0.04633046,0.044933877,0.046078669,0.044912368,0.045003481,-3.014394263,-0.543468829,-3.060819505,-2.864161417,0.044938569,0.046088511,-3.004267186,-0.522224344,0.04433443,0.04506822,0.044940249,0.045989592,0.045967227,0.046468578,-4.308245472,-2.724428406,-3.000641657,-0.735732421,-0.784005869,0.298113326,0.03242547,0.035637173,0.038990072,0.039783593,0.0395341,0.039860042,0.035873087,0.039724064,-12.5686621,-3.90869492,5.131989764,7.271620966,6.598893864,7.477758406,-3.272582661,7.111108877,0.095427151,0.086288825,0.099648879,-9.576232293,4.424032862,0.048561514,0.089105451,0.104054889,0.087028807,0.088339906,-0.541703074,1.757630371,18.82975594,-8.800790875,-7.426864398
60,0.155264449,0.154301723,0.154343785,0.163753455,0.163445159,-0.620055513,-0.592965041,5.184016313,5.268888311,0.06385209,0.062913048,0.062603643,0.061823868,0.06132564,0.065455347,0.066101241,0.066426938,-1.9552164,-3.176438481,-2.523177908,2.449390263,3.522439905,5.585312933,0.085880696,0.075919304,0.083488651,0.083781692,0.074852434,0.091526617,0.091699652,0.077700241,-2.785311614,-2.444092574,6.168611172,6.775627759,-1.405268415,2.345828934,0.168151444,0.224555344,0.153985014,0.175168283,0.150570562,-8.424804061,4.172928534,-32.94723737,0.155264449,0.16427452,0.151604507,5.803048494,-2.357231263,0.06385209,0.063272219,0.062452508,-0.908146379,-2.191912674,0.085880696,0.083894891,0.083759821,-2.312283971,-2.469559667,0.197762339,0.199672937,0.209244083,0.966108199,5.805829569,0.062913048,0.061191448,0.066426938,-2.736475112,5.585312933,0.061364544,0.061001747,-2.461339808,-3.038004241,0.075919304,0.074852434,0.077700241,0.074972187,0.074780868,-1.405268924,2.345828937,-1.247531765,-1.49953416,0.074845552,0.077705192,-1.414334039,2.352350068,0.073883119,0.074964916,0.076011527,0.078211708,0.077409099,0.078210216,-2.68203866,-1.257108945,0.121474374,3.019526475,1.9623397,3.017561478,0.056649378,0.06049172,0.065171348,0.06658996,0.066150718,0.066741245,0.060853878,0.06643716,-9.956074437,-3.848689368,3.589557332,5.844435379,5.146261137,6.084901582,-3.273041183,5.601560174,0.168151444,0.153985014,0.175168283,-8.424804061,4.172928534,0.084394337,0.156738677,0.179285542,0.15586296,0.16054873,-1.730725845,0.949495198,15.47108367,-7.307985588,-4.521348932
70,0.251984747,0.250675354,0.250743842,0.264529015,0.264030991,-0.519631536,-0.492452382,4.742114265,4.780545093,0.1017413,0.098355454,0.099630942,0.098389903,0.095653138,0.105424688,0.106465055,0.102661307,-2.074239816,-3.294038171,-2.747499763,3.493856717,4.642907736,4.377849218,0.138435254,0.115264936,0.135041906,0.135515896,0.115237317,0.146504898,0.146781871,0.120859992,-2.451216653,-2.108825499,5.508105115,6.029257054,-0.02396132,4.854083292,0.271465631,0.31863436,0.251268984,0.28221864,0.252035848,-7.439854055,3.96109399,-20.90123378,0.251984747,0.264884687,0.246660503,5.119333843,-2.11292304,0.1017413,0.100853682,0.099276018,-0.872426814,-2.423088881,0.138435254,0.1354056,0.135626246,-2.188498983,-2.02911309,0.298283218,0.299817668,0.309653823,0.514427204,3.812016326,0.098355454,0.095443831,0.102661307,-2.960306109,4.377849218,0.095355386,0.095727837,-3.050230444,-2.6715514,0.115264936,0.115237317,0.120859992,0.115624583,0.114883626,-0.0239619,4.854082936,0.312017822,-0.330812283,0.115207593,0.120852378,-0.049749163,4.847477624,0.113783138,0.115265797,0.118537835,0.122532591,0.120271545,0.121459582,-1.28555833,0.000746314,2.839457413,6.305173624,4.343566459,5.374267526,0.09079551,0.094619986,0.100620696,0.102931531,0.102224297,0.10319587,0.095135858,0.102625915,-7.686349532,-3.797926164,2.303117622,4.652591087,3.933532114,4.921349957,-3.273428856,4.341864747,0.271465631,0.251268984,0.28221864,-7.439854055,3.96109399,0.134662985,0.25266822,0.284000764,0.25510497,0.266053315,-2.724933512,0.271235837,12.70553799,-6.026789142,-1.99373866
80,0.383306627,0.381648602,0.381753077,0.400770845,0.400016322,-0.432558307,-0.405302163,4.357656907,4.359354545,0.152319926,0.14484346,0.149003577,0.147147456,0.140583036,0.159313087,0.160885329,0.149685669,-2.177225789,-3.395793544,-2.941398879,4.389571095,5.623297492,3.343063716,0.209344923,0.165495197,0.204821225,0.205540137,0.167461633,0.2202059,0.220622209,0.177206407,-2.160882593,-1.817472316,4.932191712,5.386940221,1.188213335,7.076465186,0.411059789,0.431453828,0.384019895,0.426589393,0.393785156,-6.578092647,3.777942781,-8.730638092,0.383306627,0.400672891,0.376020736,4.530645609,-1.900799589,0.152319926,0.151038192,0.148324725,-0.841474712,-2.622901115,0.209344923,0.204988152,0.205899161,-2.081144769,-1.645973473,0.425833435,0.426364862,0.434841054,0.124796946,2.115291681,0.14484346,0.140275415,0.149685669,-3.153780938,3.343063716,0.139690689,0.141435299,-3.557476067,-2.352996236,0.165495197,0.167461633,0.177206407,0.168280241,0.166641721,1.188213288,7.076465074,1.682855079,0.692783553,0.167394364,0.177175795,1.147565951,7.057968135,0.165396422,0.167321097,0.174189405,0.180780191,0.176171595,0.177839937,-0.05968472,1.10329459,5.253450311,9.235914034,6.451183159,7.459273757,0.136624998,0.139406136,0.146584006,0.150102758,0.149035708,0.150526765,0.140101626,0.149569441,-5.674030727,-3.753931414,1.201673361,3.631021981,2.894330285,3.923756319,-3.273764672,3.262819494,0.411059789,0.384019895,0.426589393,-6.578092647,3.777942781,0.201854517,0.382108354,0.423030644,0.390906921,0.412086617,-3.578021292,-0.312614523,10.36350911,-4.902660974,0.249800126
90,0.554923971,0.552950156,0.553101785,0.578149712,0.577061241,-0.355691018,-0.328366781,4.017253739,3.9892438,0.217443533,0.203785835,0.212511966,0.209864629,0.197443797,0.229304888,0.23156798,0.208755838,-2.267975952,-3.485458377,-3.112109107,5.172744034,6.495684871,2.438836761,0.301505151,0.22769159,0.295764274,0.296802391,0.232859326,0.315452199,0.316048575,0.248356447,-1.904072611,-1.55976096,4.421287232,4.823607134,2.269620938,9.075810398,0.592712333,0.563703268,0.558267994,0.614148722,0.583714432,-5.811307965,3.61665981,3.549946439,0.554923971,0.577199301,0.545416392,4.014122865,-1.713311925,0.217443533,0.215673184,0.211357705,-0.814165,-2.798808343,0.301505151,0.295516192,0.297565152,-1.986353844,-1.306776856,0.582929817,0.581661201,0.586670523,-0.217627445,0.641707915,0.203785835,0.197011754,0.208755838,-3.324117621,2.438836761,0.195628909,0.199565134,-4.00269507,-2.071145347,0.22769159,0.232859326,0.248356447,0.234311861,0.231344631,2.269621179,9.07581075,2.907560621,1.604381239,0.232736262,0.248289505,2.215572334,9.046410305,0.230046473,0.232441001,0.24460847,0.254759576,0.246693685,0.248941128,1.03424242,2.085896831,7.42973423,11.88800435,8.345541232,9.332597027,0.195914281,0.196214969,0.204274876,0.209365928,0.207833668,0.210004751,0.197113762,0.208514278,-3.86265989,-3.715108594,0.239978122,2.738214658,1.986317478,3.051692439,-3.274060882,2.320300317,0.592712333,0.558267994,0.614148722,-5.811307965,3.61665981,0.288467206,0.550347044,0.601194213,0.56959683,0.606174808,-4.324285928,-0.824784566,8.338122822,-3.899953173,2.271333604
100,0.772632631,0.770416098,0.770627685,0.802416121,0.800905429,-0.286880601,-0.259495399,3.711726252,3.659280815,0.298972859,0.276573515,0.291949737,0.288312694,0.267544606,0.317609817,0.320744557,0.281100151,-2.349083398,-3.565596238,-3.264560173,5.867878565,7.282165259,1.636684352,0.417846974,0.302896712,0.410853146,0.41229522,0.31273105,0.435084778,0.435907325,0.335900033,-1.673777348,-1.328657311,3.961941488,4.322240421,3.246762877,10.89589939,0.822279981,0.716011596,0.780178717,0.850834473,0.830065659,-5.120064311,3.47259968,15.92908041,0.772632631,0.800093854,0.760693179,3.55424063,-1.545294883,0.298972859,0.296611783,0.29013554,-0.789729258,-2.955893439,0.417846974,0.409901686,0.413658626,-1.901482718,-1.002364026,0.771985632,0.767948579,0.766902649,-0.522944056,-0.658429713,0.276573515,0.26695917,0.281100151,-3.476235097,1.636684352,0.264406451,0.271544491,-4.399215167,-1.818331844,0.302896712,0.31273105,0.335900033,0.315059805,0.310247483,3.246762836,10.89589933,4.015590989,2.426824119,0.312530308,0.335780412,3.180488685,10.85640701,0.309024119,0.311901691,0.331413191,0.346256056,0.333394322,0.336324386,2.022935885,2.97295375,9.414588508,14.31489417,10.06864989,11.03599741,0.270453279,0.266394594,0.274879388,0.281955887,0.279839473,0.282873327,0.267517597,0.280679194,-2.212878501,-3.680367129,-0.612541192,1.946090943,1.180864292,2.277807361,-3.274325851,1.484480119,0.822279981,0.780178717,0.850834473,-5.120064311,3.47259968,0.397009167,0.762737478,0.823300872,0.797660548,0.856110013,-4.986946918,-1.280706135,6.557869591,-2.994045047,4.114174378
110,1.042320538,1.039979559,1.040265575,1.079392325,1.077360175,-0.224593074,-0.19715272,3.434505296,3.361694961,0.398773239,0.364581801,0.389113371,0.38426574,0.352177772,0.426460383,0.430669618,0.367923054,-2.42239602,-3.638032324,-3.402262281,6.49231344,7.99862584,0.916461696,0.561333394,0.392119802,0.553109949,0.555051337,0.408348603,0.58196107,0.583061292,0.441403456,-1.464984105,-1.119131136,3.544511249,3.870765329,4.138735386,12.56851956,1.105689868,0.888958427,1.05604009,1.142647043,1.141400848,-4.490389186,3.342453991,28.39755084,1.042320538,1.075049178,1.027800413,3.139978406,-1.393057566,0.398773239,0.395712178,0.386420139,-0.767619254,-3.09777549,0.561333394,0.551091057,0.557257102,-1.824644138,-0.726180339,0.9953258,0.987379799,0.977210151,-0.798331653,-1.820072308,0.364581801,0.351407143,0.367923054,-3.613635886,0.916461696,0.347240468,0.358788334,-4.7565001,-1.589072012,0.392119802,0.408348603,0.441403456,0.411836372,0.404575675,4.138735321,12.56851931,5.028200513,3.176547769,0.408044597,0.441211695,4.061206279,12.51961564,0.403591856,0.406949901,0.436200658,0.457037587,0.43780563,0.441525963,2.925650072,3.782032612,11.24168064,16.55559954,11.65098699,12.59976159,0.36204397,0.351278471,0.35955972,0.369083623,0.366250582,0.370352223,0.352643331,0.367258823,-0.696093711,-3.648928852,-1.377490982,1.234790455,0.45772458,1.582750864,-3.274565543,0.734271991,1.105689868,1.05604009,1.142647043,-4.490389186,3.342453991,0.529997283,1.024691442,1.09415148,1.081727391,1.16992842,-5.582441992,-1.691331526,4.972648993,-2.167196979,5.809816462
120,1.369959684,1.367662329,1.368038941,1.414965864,1.412301937,-0.167695043,-0.140204352,3.180725529,3.090766328,0.518714156,0.469172079,0.505801923,0.499500394,0.452620611,0.558109787,0.56361862,0.470407912,-2.489277139,-3.704113693,-3.527803289,7.058760174,8.656880336,0.263407289,0.734956463,0.496341015,0.725593238,0.728140033,0.520958385,0.758953379,0.760388213,0.56641206,-1.273983626,-0.927460395,3.161843224,3.460306992,4.959769444,14.11752059,1.448933185,1.083082365,1.392252475,1.49564365,1.526580468,-3.911892617,3.223783226,40.94777256,1.369959684,1.407814873,1.352782167,2.763233861,-1.253870246,0.518714156,0.51483713,0.501974614,-0.747430099,-3.227122515,0.734956463,0.722062067,0.731477387,-1.754443458,-0.473371656,1.255198573,1.242030598,1.219190643,-1.04907509,-2.868703919,0.469172079,0.451630194,0.470407912,-3.738902188,0.263407289,0.445331055,0.462700757,-5.081509629,-1.379306769,0.496341015,0.520958385,0.56641206,0.525929123,0.515528479,4.95976943,14.11752058,5.961245934,3.865782572,0.520521762,0.566125498,4.871801018,14.05978575,0.514987237,0.518806468,0.560549243,0.588856658,0.561438135,0.566059996,3.756736192,4.526213387,12.93631326,18.63953217,13.1154021,14.04658881,0.472499243,0.452187022,0.459456964,0.471939061,0.468243416,0.473640189,0.453807705,0.469426507,0.709156476,-3.620218995,-2.07069337,0.589758388,-0.197936459,0.952339245,-3.274784364,0.054229168,1.448933185,1.392252475,1.49564365,-3.911892617,3.223783226,0.689956351,1.341673968,1.418539234,1.428558412,1.555892256,-6.122826851,-2.064711554,3.54605694,-1.406191338,7.381918761
130,1.761599478,1.759567908,1.760053002,1.815084235,1.811667013,-0.115325276,-0.087788168,2.94668185,2.842163376,0.660668869,0.591693216,0.643816783,0.635795594,0.570136969,0.714830195,0.72188617,0.589719256,-2.550761322,-3.764862603,-3.643145737,7.576809991,9.265958201,-0.333611953,0.941734869,0.616514811,0.931395059,0.934664209,0.65178416,0.96894759,0.970779427,0.712452404,-1.097953399,-0.750812218,2.808482262,3.084154517,5.720762644,15.56127952,1.858059922,1.298887286,1.795320046,1.915933603,1.994745206,-3.37663364,3.114737047,53.57338764,1.761599478,1.804192801,1.741769913,2.417877837,-1.125656835,0.660668869,0.655853556,0.638563168,-0.72885425,-3.345957772,0.941734869,0.925821238,0.939472429,-1.689820765,-0.24024173,1.553784748,1.533909091,1.494376439,-1.279176978,-3.823458123,0.591693216,0.568889405,0.589719256,-3.853992245,-0.333611953,0.55986302,0.58467605,-5.379509939,-1.185946634,0.616514811,0.65178416,0.712452404,0.658603553,0.644281912,5.720762588,15.5612795,6.826882538,4.503882244,0.651181751,0.712045106,5.623050643,15.49521496,0.644425584,0.64866917,0.706020506,0.743451828,0.705783005,0.711420806,4.527186085,5.215504723,14.51801205,20.58945138,14.47948893,15.39395219,0.603641959,0.570428939,0.575693392,0.591693312,0.586975607,0.593917226,0.572315348,0.588336571,2.019415263,-3.593800931,-2.704074243,1.64E-05,-0.797306528,0.375872164,-3.27498566,-0.567294777,1.858059922,1.795320046,1.915933603,-3.37663364,3.114737047,0.879418379,1.719198915,1.801250375,1.845036638,2.022474653,-6.617201134,-2.40693546,2.25084635,-0.700907666,8.848731365
140,2.223361151,2.221875636,2.222488842,2.285750409,2.281447073,-0.066813952,-0.039233801,2.729486887,2.612527535,0.826514104,0.73348271,0.804961491,0.794932395,0.705978478,0.898911291,0.907784571,0.727004623,-2.607652221,-3.821073202,-3.749813215,8.053874478,9.832919598,-0.883195612,1.18471192,0.753572705,1.173638477,1.177757889,0.802029316,1.21484209,1.217138801,0.881034034,-0.934694993,-0.586980785,2.480171665,2.73711105,6.430250284,16.91427093,2.339174453,1.536847224,2.271843577,2.409674335,2.555300309,-2.878403352,3.013878759,66.26898688,2.223361151,2.270033124,2.200976321,2.099162933,-1.006801345,0.826514104,0.820632195,0.797951001,-0.711652601,-3.455851932,1.18471192,1.165401689,1.184428652,-1.629951601,-0.023910312,1.893205101,1.864963385,1.804242379,-1.491740981,-4.699053581,0.73348271,0.704433667,0.727004623,-3.960426315,-0.883195612,0.692007336,0.726099582,-5.654580964,-1.006585138,0.753572705,0.802029316,0.881034034,0.81110527,0.791991082,6.430250309,16.91427088,7.634640233,5.098164687,0.801224092,0.880476723,6.323396158,16.84031511,0.793102196,0.797715039,0.874160757,0.922548988,0.872313889,0.879084783,5.245610795,5.857740607,16.00217885,22.42335504,15.75709729,16.65560306,0.757304163,0.707302253,0.709374302,0.729500511,0.72358783,0.732346414,0.709459889,0.725126189,3.247718396,-3.569335169,-3.286840557,-0.542916455,-1.349026927,-0.154917836,-3.27517203,-1.139293492,2.339174453,2.271843577,2.409674335,-2.878403352,3.013878759,1.100921999,2.162825273,2.247064783,2.338158788,2.578346731,-7.072598854,-2.722719066,1.066117013,-0.043419819,10.22464473
150,2.761432967,2.760835674,2.761598388,2.833019004,2.827685337,-0.021629814,0.005990397,2.526846343,2.399202546,1.018129791,0.895867655,0.991041567,0.978693811,0.8613856,1.112659047,1.123642572,0.883396089,-2.660586527,-3.873374573,-3.849012121,8.495797228,10.36339193,-1.392121422,1.466953818,0.908425527,1.45547545,1.460584094,0.972878741,1.499546844,1.502381802,1.073650964,-0.782462806,-0.434214341,2.173525044,2.415071524,7.095046549,18.18811032,2.89843177,1.79741025,2.82851426,2.983068025,3.217901956,-2.412253108,2.920070614,79.02991012,2.761432967,2.811230937,2.736689945,1.803338008,-0.896021112,1.018129791,1.011047318,0.981904238,-0.695635569,-3.558048635,1.466953818,1.443861295,1.469563691,-1.574181973,0.177911066,2.275526496,2.237087804,2.150212187,-1.689221919,-5.507046811,0.895867655,0.85950073,0.883396089,-4.059408156,-1.392121422,0.84292235,0.88834854,-5.909947142,-0.839310958,0.908425527,0.972878741,1.073650964,0.984661811,0.959792136,7.095046641,18.18811039,8.39213365,5.654465673,0.971829773,1.072910962,6.979575599,18.10665057,0.962194196,0.967102286,1.066502372,1.12786242,1.062488455,1.070511966,5.918885831,6.459171092,17.40118928,24.15573837,16.95933499,17.84256768,0.935326418,0.864095238,0.861589563,0.886499344,0.879205341,0.890075438,0.866524894,0.880916936,4.404530336,-3.546552509,-3.826245104,-1.045724913,-1.859907934,-0.64654828,-3.275345536,-1.668853508,2.89843177,2.82851426,2.983068025,-2.412253108,2.920070614,1.357011973,2.678154001,2.760756473,2.915028167,3.232366413,-7.494567576,-3.015788069,-0.02449794,0.572599189,11.52121801
160,3.382066072,3.382764659,3.383700061,3.462992985,3.456473279,0.020655618,0.048313343,2.336906639,2.200051842,1.237398838,1.080165558,1.203864374,1.188864672,1.037588522,1.358394655,1.371804293,1.060011571,-2.710077219,-3.922273438,-3.941713949,8.907265401,10.86193477,-1.865823948,1.791548171,1.081965317,1.780084997,1.786333004,1.165500404,1.825982615,1.829434714,1.291782939,-0.639847378,-0.291098316,1.88580348,2.114737597,7.720680662,19.39226874,3.542034233,2.081001612,3.47210833,3.642358679,3.992445276,-1.974173535,2.832396286,91.85209914,3.382066072,3.433723351,3.355270608,1.52738823,-0.792280905,1.237398838,1.228976479,1.192189861,-0.680650297,-3.653549334,1.791548171,1.764281089,1.798124428,-1.521984348,0.367071151,2.702766978,2.652128081,2.533663724,-1.873594606,-6.256671574,1.080165558,1.035318088,1.060011571,-4.151907135,-1.865823948,1.013754814,1.072792558,-6.148200506,-0.682580554,1.081965317,1.165500404,1.291782939,1.180484172,1.148803895,7.720680607,19.39226868,9.105546493,6.17751575,1.164162827,1.290824111,7.597055885,19.3036496,1.152862079,1.157971916,1.2845649,1.361095702,1.277749688,1.287147374,6.552590956,7.024864591,18.72514573,25.79845957,18.09525382,18.9638294,1.139557228,1.042087175,1.033414906,1.063814342,1.054939265,1.068237871,1.044784651,1.056816098,5.498385814,-3.525235881,-4.328100657,-1.513769474,-2.335409951,-1.104246249,-3.27550784,-2.161655669,3.542034233,3.47210833,3.642358679,-1.974173535,2.832396286,1.650238766,3.270825303,3.347094024,3.582848481,3.993568655,-7.887558259,-3.289136494,-1.034043893,1.152282725,12.74788419
170,4.091570871,4.094041892,4.09517497,4.181820778,4.173947749,0.060392967,0.088085956,2.158148591,2.013331323,1.486206939,1.287685044,1.445238996,1.42723151,1.235807916,1.638453602,1.654628293,1.257955924,-2.756543657,-3.968184191,-4.028712519,9.292094838,11.33229495,-2.308726071,2.161602702,1.275066937,2.150671605,2.158220352,1.381046702,2.197080272,2.201233947,1.536896505,-0.505694085,-0.156474162,1.614759853,1.833419458,8.31170207,20.53457434,4.276228728,2.388026311,4.209482361,4.393829591,4.889053715,-1.560869895,2.750106946,104.7319869,4.091570871,4.143486958,4.063145376,1.268854622,-0.694733046,1.486206939,1.476300304,1.430575653,-0.666571738,-3.743172311,2.161602702,2.129763872,2.173385275,-1.472927002,0.545085071,3.176900081,3.111885737,2.955933398,-2.046471156,-6.955418091,1.287685044,1.233103741,1.257955924,-4.238715336,-2.308726071,1.205640763,1.280794264,-6.371455581,-0.535129333,1.275066937,1.381046702,1.536896505,1.399768118,1.360129255,8.311702104,20.53457432,9.779971303,6.671204147,1.37937169,1.535679211,8.180335482,20.43910531,1.366251035,1.371449115,1.529856019,1.623942484,1.519527009,1.530422155,7.151318496,7.558989679,19.98240834,27.36135154,19.17233244,20.02680885,1.371852541,1.242549009,1.225913043,1.26255699,1.2518877,1.267954276,1.245504856,1.253917792,6.536341868,-3.505207696,-4.797135848,-1.951413068,-2.779976699,-1.532266645,-3.275660301,-2.622322282,4.276228728,4.209482361,4.393829591,-1.560869895,2.750106946,1.983158175,3.946516253,4.010840949,4.348918405,4.871156794,-8.255195391,-3.545206068,-1.973078916,1.699854757,13.91244725
180,4.896313824,4.901105983,4.902463547,4.995693727,4.986288437,0.097872795,0.125599043,1.989311366,1.837598975,1.766442402,1.519726464,1.716976132,1.69558245,1.457255603,1.955184854,1.974486744,1.478321906,-2.800333055,-4.011449928,-4.110664786,9.653432587,11.77758989,-2.724474388,2.5802441,1.488589442,2.570463811,2.579486008,1.620655632,2.61578019,2.620725435,1.810445949,-0.379045107,-0.029380618,1.358527386,1.568895555,8.871901565,21.62157664,5.107304172,2.718871251,5.047569092,5.243801105,5.918069516,-1.169600985,2.672582804,117.6664126,4.896313824,4.946535591,4.866804983,1.025705638,-0.602674634,1.766442402,1.754902299,1.698830146,-0.653296293,-3.827594744,2.5802441,2.543432992,2.598646664,-1.426652123,0.713210218,3.699858514,3.618121811,3.41831989,-2.209184546,-7.609442983,1.519726464,1.45406686,1.478321906,-4.320488277,-2.724474388,1.41970628,1.513709743,-6.581459642,-0.395908133,1.488589442,1.620655632,1.810445949,1.643695306,1.59485639,8.871901587,21.62157664,10.41965365,7.138768128,1.618590365,1.808926998,8.733161746,21.51953705,1.603492094,1.608644439,1.803872366,1.918087161,1.78923724,1.801754572,7.718894772,8.065017359,21.17997856,28.85266459,20.19682461,21.03771006,1.634075304,1.466743924,1.440134624,1.483826678,1.471136678,1.490333157,1.469943203,1.473303933,7.524304031,-3.486320812,-5.237247778,-2.362253124,-3.197271807,-1.934118242,-3.275804045,-3.054663591,5.107304172,5.047569092,5.243801105,-1.169600985,2.672582804,2.358331008,4.710938703,4.756756013,5.22062677,5.874494858,-8.600468933,-3.786013876,-2.850262785,2.218833945,15.02144106
190,5.802714595,5.810451853,5.812062555,5.910843844,5.899715619,0.133338591,0.161096322,1.82933692,1.671649056,2.079995997,1.777582434,2.020888,1.995707116,1.703135139,2.310950134,2.333764699,1.722191009,-2.841736124,-4.052357856,-4.188120574,9.993903942,12.20044183,-3.116110062,3.050617015,1.723377277,3.042712956,3.053392724,1.885451796,3.08503172,3.090864105,2.113874113,-0.25909706,0.09098844,1.115538125,1.319309822,9.40447116,22.65881309,6.04158929,3.073907044,5.993373713,6.198628627,7.090045146,-0.798061147,2.599305089,130.6525553,5.802714595,5.848918348,5.772800655,0.796243755,-0.515516305,2.079995997,2.06666869,1.99872258,-0.640737165,-3.907383369,3.050617015,3.008431257,3.0772337,-1.382859841,0.87250169,4.273537337,4.172560083,3.922087357,-2.362849446,-8.223865891,1.777582434,1.699408366,1.722191009,-4.397774577,-3.116110062,1.657068159,1.772888962,-6.779672918,-0.264036835,1.723377277,1.885451796,2.113874113,1.913434276,1.8540598,9.404471195,22.65881308,11.02817135,7.582931746,1.882939442,2.112006721,9.258690317,22.55045658,1.865703123,1.870654847,2.108100261,2.245205465,2.088285449,2.102550872,8.258542548,8.545869338,22.32378185,30.27939355,21.17401551,22.00177527,1.928095079,1.715927842,1.677119069,1.728711538,1.713760994,1.736471791,1.7193499,1.716045079,8.467266677,-3.468451951,-5.651685281,-2.749290002,-3.590350525,-2.312727796,-3.275940015,-3.461856626,6.04158929,5.993373713,6.198628627,-0.798061147,2.599305089,2.778322793,5.569837431,5.589593523,6.205448267,7.013100653,-8.925873708,-4.01324519,-3.672782263,2.712183328,16.08039404
200,6.8172435,6.828628053,6.830522403,6.933541782,6.920488144,0.166996424,0.194784047,1.677328633,1.514463205,2.428760824,2.062538308,2.358788256,2.329396554,1.974642317,2.708123272,2.73485944,1.990634196,-2.8809987,-4.091150903,-4.261544646,10.31572127,12.6030778,-3.486195232,3.575883148,1.980261319,3.570692058,3.583225005,2.1765473,3.60779271,3.614613398,2.448613114,-0.145169453,0.205315916,0.884462196,1.083096067,9.912125189,23.65100962,7.085450632,3.45348955,7.053970527,7.264700859,8.415735513,-0.444292197,2.529835241,143.6878813,6.8172435,6.85671781,6.787741265,0.579036225,-0.432759003,2.428760824,2.413488268,2.332022862,-0.628820918,-3.983017238,3.575883148,3.527919958,3.612494955,-1.341296346,1.023853567,4.899796735,4.776889874,4.468468201,-2.50840734,-8.802988305,2.062538308,1.970321437,1.990634196,-4.471037984,-3.486195232,1.918834497,2.059676127,-6.967328065,-0.138769831,1.980261319,2.1765473,2.448613114,2.210141312,2.138801228,9.912125155,23.65100958,11.60856852,8.006009441,2.173526987,2.446346867,9.759604227,23.53656779,2.153989693,2.158564618,2.444016344,2.606964992,2.418065691,2.434206047,8.773002417,9.004028763,23.41888011,31.6475238,22.10841403,22.92347595,2.255787698,1.991349864,1.937895313,1.998289174,1.980824938,2.007456954,1.994968129,1.983201173,9.369493376,-3.451496796,-6.043184472,-3.115051633,-3.961786772,-2.670561484,-3.276069008,-3.846577512,7.085450632,7.053970527,7.264700859,-0.444292197,2.529835241,3.245703527,6.528988474,6.514103574,7.310939583,8.296639527,-9.233512588,-4.228322282,-4.446664209,3.182422158,17.09402772
